
\data\
ngram 1=10
ngram 2=7
ngram 3=6

\1-grams:
-0	</s>	-0
-0	</s>	-0
-99	<s>	-99
-99	<s>	-99
-5	<unk>
-1.0	an	-99
-1.0	buy	-99
-1.0	i	-99
-0.95	kitty	-99
-1.0	you	-99

\2-grams:
-1.0	<s> i	-99
-1.05	an </s>	-99
-0.95	an kitty	-99
-1.0	buy you	-99
-1.0	i buy	-99
-0.95	kitty </s>	-99
-1.0	you an	-99

\3-grams:
-1.0	<s> i buy
-0.95	an kitty </s>
-1.0	buy you an
-1.0	i buy you
-1.05	you an </s>
-0.95	you an kitty

\end\
