
\data\
ngram 1=10
ngram 2=8
ngram 3=8

\1-grams:
-0	</s>	-0
-0	</s>	-0
-99	<s>	-99
-99	<s>	-99
-5	<unk>
-1.05	dog	-99
-1.0	house	-99
-1.0	in	-99
-1.0	is	-99
-1.0	the	-99

\2-grams:
-1.0	<s> the	-99
-1.05	dog is	-99
-1.0	house </s>	-99
-1.0	in the	-99
-1.0	is in	-99
-1.05	the dog	-99
-1.0	the house	-99
-0.95	the is	-99

\3-grams:
-1.05	<s> the dog
-0.95	<s> the is
-1.05	dog is in
-1.0	in the house
-1.0	is in the
-1.05	the dog is
-1.0	the house </s>
-0.95	the is in

\end\
